{"scaler": {"min_": [-0.16279069767441862, -0.08419139884436169, -3.950172654999224, -7.109210526315788, -0.8090169943749461, -7.338902985472643, 5.6499398375914985e-15, 0.0, -0.1647058823529412, 0.0, 0.0, -0.5972927241962774, -0.42857142857142855], "scale_": [1.1627906976744187, 0.0030284675945373234, 0.014622145678323983, 0.02631578947368421, 0.004522542485937365, 0.027166029929567438, 0.0003125916036303739, 0.002398523483231148, 1.1764705882352942, 0.00016758270996248848, 1.0, 0.001692047377326565, 0.014285714285714285], "data_min_": [0.14, 27.7999999062972, 270.15, 270.15, 178.885438199983, 270.15, -1.80745092701604e-11, 0.0, 0.14, 0.0, 0.0, 353.0, 30.0], "data_max_": [1.0, 358.0, 338.5394157532851, 308.15, 400.0, 306.96067872606596, 3199.06225370804, 416.923164184684, 0.99, 5967.20270381019, 1.0, 944.0, 100.0], "data_range_": [0.86, 330.2000000937028, 68.3894157532851, 38.0, 221.114561800017, 36.81067872606599, 3199.062253708058, 416.923164184684, 0.85, 5967.20270381019, 1.0, 591.0, 70.0]}, "linear_regression": {"coef_": [[0.9973538203671141, 0.004520379121137218, -4.916444978187806e-06, -0.00026799522711238536, -0.003927219647224741, -0.0031566524846310734, -0.0002410507988733443, -0.0029967251311918803, -0.0006486862218264234, 6.617996224311131e-05, 6.910343612330115e-05, 0.0004977602496978902, 0.00010420507338974638], [0.029571515824453658, 0.8917267541460856, -0.007689235286614471, 0.01290381384359951, 0.08459351958038944, 0.047611009375016666, -0.009974652293582492, 0.03288117222585285, 0.0014442793254700811, -0.010763345273165442, 0.007727423209299644, 0.0026516485869765016, -0.0003582418922465358], [-0.0010518348089458174, -0.002178965770967406, 0.9920362440705772, 0.0012439259371858635, -0.0017110757373478072, 0.00019265502706396556, 0.0028909243930608022, -0.005027405286858411, -0.0011207032680376813, 0.012897605917021184, -0.0002848866607120665, 0.0001562377220616605, -0.00034674851324971445]], "intercept_": [0.00468957876137488, -0.06614568354437778, 0.005684329558335033]}}