{"standard_scaler": {"mean_": [10.698481561822126, 0.7761388286334056, 173.15401301518438, 72.35249457700651, 23.239696312364426, 22.97483731019523, 22.82776572668113, 23.440997830802605, 23.197180043383952, 23.536659436008676, 0.15223427331887204, 0.11939262472885034, 0.1008893709327549, 36.710845986984815, 647.2158351409978, 37.52672451193059, 63.53524945770065, 0.13449023861171366, 0.11279826464208242, 0.11496746203904555, 0.13449023861171366, 23.01874254760808, 22.91401734606863, 23.088248340159517], "var_": [13.12166797634116, 0.0031061325704283336, 77.86565092390869, 322.7331228443307, 5.66759990777382, 5.410559897610119, 5.719923207588897, 5.2974298069367265, 5.317757774525811, 10.10418753911378, 0.009593923424038095, 0.007606138687470886, 0.0010831569586064434, 65.18586934938193, 318130.7153457777, 1216.634511830831, 3.331593701328339, 0.11640261432987799, 0.10007481613581716, 0.10174994471134619, 0.11640261432987799, 4.842782498921092, 4.65230932970003, 7.257715828714007], "scale_": [3.6223842944035023, 0.055732688526827175, 8.824151569635955, 17.96477450023603, 2.380672154618065, 2.326061026200757, 2.3916360943063424, 2.301614608690327, 2.30602640369225, 3.178708470293207, 0.09794857540586334, 0.08721317955143526, 0.0329113499967176, 8.073776647231576, 564.0307751761226, 34.88028829913581, 1.8252653783295019, 0.3411782735314164, 0.3163460385966879, 0.3189826714907037, 0.3411782735314164, 2.2006322952554096, 2.1569212618220512, 2.6940148159789334]}, "lda": {"solver": "lsqr", "shrinkage": "auto", "priors": null, "n_components": null, "store_covariance": false, "tol": 0.0001, "classes_": [1.0, 2.0], "priors_": [0.5206073752711496, 0.4793926247288503], "_max_components": 1, "means_": [[-0.021435668382495297, 0.04759931923944704, 0.028820937190616742, -0.04061158186707317, 0.04563291957616728, 0.07136357183595951, 0.0713183778494841, 0.044100419250967755, 0.06012649713263452, 0.0738005910839894, -0.018556744135112303, 0.024163495494471426, -0.027023228547100174, 0.04789010520222443, -0.14816198362267813, 0.12189622550151709, 0.12107858118779995, 0.033246826077789414, 0.012228387754576462, 0.03145167075712651, 0.10652230092334108, 0.05839007108075379, 0.06681398288483766, 0.07519730429924949, 1.975, 1.9916666666666667, 1.9916666666666667], [0.023278553899542365, -0.05169156840482668, -0.031298755320124966, 0.04410307533075774, -0.04955611175692473, -0.07749890154131563, -0.07744982209898829, -0.047891858010102185, -0.06529574349245731, -0.08014543828125559, 0.02015212032772331, -0.02624090008449453, 0.029346492539835792, -0.05200735406576401, 0.16089989171693572, -0.1323759914948622, -0.13148805196865335, -0.03610515049171843, -0.01327969710904046, -0.03415566055072694, -0.11568032679458033, -0.06341003194289993, -0.07255817145864846, -0.08166223091321365, 1.9864253393665159, 2.0, 2.0]], "covariance_": [[0.9981233665437463, 0.1272666434435274, 0.049382276965108315, 0.08759459858945193, 0.28573638226135023, 0.23982436807885646, 0.24326994237163546, 0.33803703701814525, 0.2881509874479249, 0.2935431711451365, 0.37132663578420955, 0.28664033349334045, 0.40345067899480447, -0.2585923402006113, 0.4999414909008296, -0.5205222111349339, -0.12335242995925794, -0.2087746879085121, -0.2028482102848035, -0.20790759992951877, -0.20573598426578454, 0.24617014633204892, 0.24437088581891636, 0.25943388687190166, -0.007117944532155956, 0.001780832392787178, 0.001780832392787176], [0.1272666434435274, 0.9962060752398325, -0.16632282111702226, -0.11648892581541483, -0.03175986929392792, -0.040184471945532325, -0.043732285939500244, -0.018334636355280147, -0.029432858486437147, -0.007586504535205221, 0.06601248785754857, 0.045582567493361134, 0.09278939774890452, -0.016883203111834232, 0.10163574514143771, -0.1217360490592233, -0.037893762808322726, -0.05624513013800868, -0.040695663249967026, -0.04342937535548066, -0.06011120203493764, -0.04246759390068961, -0.04192606312702296, -0.030950143901873034, 0.005511986094205196, 0.0013419443795344298, 0.0013419443795344404], [0.04938227696510834, -0.16632282111702226, 0.9974990330202355, 0.5008859882382074, 0.07541218651580277, 0.08449680875467093, 0.08338595409909297, 0.06916128917647534, 0.07636118927269957, 0.04068897724120882, -0.03184101352511107, -0.05519515268196338, -0.03726176692716271, -0.018888504329313868, -0.0807758454780713, 0.08290518862883758, 0.0227456665226464, 0.0481898208126712, 0.01552370282537269, 0.01878822797411832, 0.04547971640179474, 0.08374678938588408, 0.092835190624306, 0.06266280473479101, 0.002207258905687527, -0.000717890772812228, -0.0007178907728122277], [0.08759459858945191, -0.11648892581541483, 0.5008859882382074, 0.9958245586782383, 0.019422816088196748, 0.01582931377616585, -0.010091147696561657, -0.009565160520833615, -0.007323188677008593, -0.02167591395535639, 0.06680062750516938, 0.015127509482444686, 0.07118538259457136, -0.10905586500930267, 0.027520766873005788, -0.0271049936731255, 0.000647803018003372, -0.010444859759010347, -0.013287951143639478, -0.013937671201237203, -0.008432721165296135, -0.008747515518933806, 0.0015038145768617554, -0.02222262288869335, -0.0017716561900428043, -0.0003050827562049341, -0.00030508275620493404], [0.28573638226135023, -0.031759869293927906, 0.07541218651580277, 0.019422816088196754, 0.9964164501043762, 0.9085289637766962, 0.8565318416948957, 0.9019563760281666, 0.9110822998163783, 0.8290328178016528, 0.4600537334267052, 0.5020229348614597, 0.2241813578397509, -0.24455221139872357, 0.13984585160928448, -0.21760209224248442, 0.5008872656459854, -0.06824153013332522, -0.09012996008193465, -0.09088354405754535, -0.07262395453142477, 0.9126414865671867, 0.8942757187852547, 0.8581942724623918, -0.058222034868195854, -0.017807263461917605, -0.01780726346191759], [0.23982436807885646, -0.040184471945532325, 0.08449680875467094, 0.01582931377616585, 0.9085289637766962, 0.9931379876085062, 0.8905533667948975, 0.8941574181601943, 0.9192550240057604, 0.8437824753237526, 0.4157173970624276, 0.45455104707869554, 0.17106123466941311, -0.20148825492012418, 0.04486976304788816, -0.12618005675861665, 0.5644612299073415, -0.028454298133807482, -0.05431331289430954, -0.05520329085778679, -0.034968498271183354, 0.9027598488967777, 0.9176438243491338, 0.8845690978891176, -0.053107021035146626, -0.016783797010372085, -0.016783797010372078], [0.24326994237163546, -0.04373228593950025, 0.08338595409909297, -0.010091147696561657, 0.8565318416948957, 0.8905533667948973, 0.9930721831386553, 0.831170967055332, 0.8687129745202347, 0.8554824031701551, 0.413034652599111, 0.4432488258183225, 0.17166335836226046, -0.1305184832599864, -0.025393354329801353, -0.06940515171523809, 0.6355856704687437, -0.005034326300041487, -0.03228622637015809, -0.032993160767584115, -0.011612843602887515, 0.8413633054578662, 0.8672872463054784, 0.9103404267507569, -0.039736949239522666, -0.012982893691535895, -0.012982893691535902], [0.33803703701814525, -0.018334636355280147, 0.06916128917647534, -0.009565160520833615, 0.9019563760281666, 0.8941574181601943, 0.831170967055332, 0.9966235067095868, 0.9218898978451779, 0.8271904396851493, 0.4692362198548878, 0.4969317462668018, 0.25386400777180995, -0.2844435899863049, 0.22804488811820312, -0.3008653422182969, 0.43104518105427003, -0.10277575218426971, -0.12243441931908705, -0.123432072410156, -0.10693469304468452, 0.9033957853386996, 0.895491385230678, 0.8439621363673674, -0.055914689476632, -0.018256086885774483, -0.018256086885774472], [0.28815098744792494, -0.029432858486437147, 0.07636118927269958, -0.0073231886770085824, 0.9110822998163783, 0.9192550240057603, 0.8687129745202348, 0.9218898978451779, 0.9947964340703059, 0.8458838210987221, 0.4491397987020406, 0.47999468203091045, 0.20996289544371435, -0.24054965879629267, 0.13000090307421638, -0.20995159471447805, 0.5134962130200659, -0.06397594254656455, -0.08694661335423681, -0.08792003394588437, -0.06950341080084382, 0.9090964437795584, 0.9148972487382019, 0.8737899939857379, -0.05439454890786875, -0.017628602038450014, -0.017628602038450014], [0.2935431711451365, -0.007586504535205221, 0.04068897724120881, -0.021675913955356382, 0.8290328178016529, 0.8437824753237526, 0.8554824031701551, 0.8271904396851493, 0.8458838210987221, 0.992632489541229, 0.5476124512829146, 0.5751716703547152, 0.2791190816332005, -0.20400136852537348, 0.14096324899828858, -0.248379656725668, 0.6191908999708347, -0.08657428743670739, -0.0988976958951986, -0.10053363080900184, -0.09266711375250378, 0.7933446528271317, 0.8078318170322651, 0.9132175019879709, -0.040724744126523854, -0.01193065927406743, -0.01193065927406743], [0.37132663578420955, 0.06601248785754857, -0.03184101352511108, 0.06680062750516941, 0.4600537334267052, 0.4157173970624276, 0.41303465259911104, 0.4692362198548878, 0.4491397987020407, 0.5476124512829146, 0.9982550716322808, 0.7994284747441398, 0.4511366491922981, -0.2962300388066833, 0.43040437357366734, -0.5509938442921194, 0.35536601812375296, -0.23395166715021765, -0.2122095615660487, -0.2138720035714119, -0.23153089431499263, 0.3106353060557464, 0.3227921729965907, 0.47743244921193134, -0.022359521401524578, -0.003030559916287731, -0.003030559916287731], [0.28664033349334045, 0.045582567493361134, -0.05519515268196338, 0.015127509482444693, 0.5020229348614598, 0.4545510470786956, 0.4432488258183225, 0.49693174626680175, 0.47999468203091045, 0.5751716703547152, 0.7994284747441398, 0.9982933725022425, 0.43921739292692796, -0.29475497152888497, 0.3696123976404615, -0.4953503638515786, 0.4161231163415235, -0.20955762598883027, -0.18933883388507805, -0.19161556394277351, -0.2104431887558187, 0.3814750532134433, 0.3367171747004511, 0.5101337607222616, -0.029781026790592517, -0.002441467072320677, -0.002441467072320677], [0.40345067899480447, 0.09278939774890452, -0.03726176692716271, 0.07118538259457136, 0.2241813578397509, 0.17106123466941311, 0.17166335836226046, 0.25386400777180995, 0.20996289544371433, 0.2791190816332005, 0.4511366491922981, 0.43921739292692796, 0.9984101087505066, -0.15557654457271133, 0.497028458799935, -0.5495407650096662, 0.025635249943683124, -0.23349476843029, -0.21195017280557796, -0.2134451668824734, -0.23044205658804023, 0.15721356754216934, 0.1366687004977723, 0.19229313311896862, -0.0008571352370337231, -1.7548142707513403e-19, -1.7548142707513403e-19], [-0.2585923402006113, -0.01688320311183423, -0.018888504329313854, -0.10905586500930266, -0.24455221139872357, -0.20148825492012418, -0.13051848325998638, -0.2844435899863049, -0.2405496587962927, -0.20400136852537348, -0.29623003880668325, -0.2947549715288849, -0.15557654457271133, 0.9959909393279667, -0.49455653501349195, 0.48201481312770833, 0.10607037789171399, 0.20333296008373664, 0.1822330232679815, 0.1837096390525365, 0.19872722633360024, -0.22963863036885168, -0.19940253450348905, -0.17773788002194446, 0.02623454153199673, 0.00805849284117097, 0.00805849284117097], [0.49994149090082973, 0.10163574514143771, -0.0807758454780713, 0.027520766873005788, 0.13984585160928448, 0.04486976304788816, -0.025393354329801346, 0.22804488811820317, 0.13000090307421638, 0.14096324899828858, 0.43040437357366734, 0.3696123976404615, 0.49702845879993507, -0.49455653501349195, 0.9747139648633395, -0.8980406612897784, -0.34334663977879665, -0.38326743212655023, -0.35032250665019715, -0.3509093290016109, -0.37046835608469875, 0.091310877886007, 0.04866556559579598, 0.045919933381994855, -0.015709951717429047, -0.004666691954113218, -0.004666691954113218], [-0.5205222111349339, -0.12173604905922329, 0.08290518862883758, -0.027104993673125487, -0.21760209224248445, -0.12618005675861663, -0.0694051517152381, -0.30086534221829686, -0.20995159471447802, -0.248379656725668, -0.5509938442921194, -0.4953503638515786, -0.5495407650096662, 0.4820148131277084, -0.8980406612897784, 0.9824958219663844, 0.20901834973466543, 0.39330296633199363, 0.35840560585323783, 0.3594488243709213, 0.3824419081428998, -0.14896638828876174, -0.11048431661642708, -0.14698875800827893, 0.017557221346424283, 0.004189711075327596, 0.004189711075327596], [-0.12335242995925794, -0.03789376280832274, 0.0227456665226464, 0.000647803018003372, 0.5008872656459854, 0.5644612299073415, 0.6355856704687437, 0.43104518105427003, 0.513496213020066, 0.6191908999708347, 0.3553660181237529, 0.41612311634152355, 0.025635249943683124, 0.10607037789171397, -0.34334663977879665, 0.20901834973466543, 0.9825540945058171, 0.09089284449945617, 0.08452221236694206, 0.0829690953898961, 0.08142606311638553, 0.45062824930192324, 0.49045387267875834, 0.6421808404033054, -0.02072151703100919, -0.005437585592367152, -0.005437585592367152], [-0.20877468790851209, -0.05624513013800868, 0.0481898208126712, -0.010444859759010347, -0.06824153013332522, -0.028454298133807482, -0.005034326300041486, -0.1027757521842697, -0.06397594254656455, -0.08657428743670739, -0.23395166715021765, -0.2095576259888303, -0.23349476843029, 0.20333296008373658, -0.38326743212655023, 0.39330296633199363, 0.09089284449945614, 0.9974914082622364, -0.13186091711608178, -0.1337664230179393, 0.3393012344115225, -0.037007982366277815, -0.02002685046329991, -0.04044144538959302, 0.007340706276078081, 0.0017011971433226036, 0.0017011971433226036], [-0.2028482102848035, -0.040695663249967026, 0.01552370282537269, -0.013287951143639478, -0.09012996008193463, -0.05431331289430954, -0.03228622637015809, -0.12243441931908705, -0.08694661335423681, -0.0988976958951986, -0.21220956156604867, -0.18933883388507805, -0.21195017280557796, 0.18223302326798152, -0.35032250665019726, 0.3584056058532379, 0.08452221236694207, -0.13186091711608178, 0.9984641147173307, 0.24173419269920352, -0.1321952980512497, -0.06399738489816939, -0.04910464523775145, -0.061022790305613236, 0.0065480082867411075, 0.0014677888981827524, 0.0014677888981827524], [-0.20790759992951877, -0.04342937535548066, 0.018788227974118322, -0.0139376712012372, -0.09088354405754537, -0.05520329085778679, -0.032993160767584115, -0.123432072410156, -0.08792003394588437, -0.10053363080900184, -0.2138720035714119, -0.19161556394277354, -0.2134451668824734, 0.1837096390525365, -0.350909329001611, 0.3594488243709213, 0.08296909538989608, -0.1337664230179393, 0.24173419269920352, 0.9976245788064035, -0.1355318044676969, -0.06466887536092526, -0.049776415616612835, -0.06219058890115126, 0.006717189006605695, 0.0015596319787071346, 0.0015596319787071346], [-0.20573598426578452, -0.06011120203493764, 0.04547971640179473, -0.008432721165296135, -0.07262395453142477, -0.034968498271183354, -0.011612843602887517, -0.1069346930446845, -0.06950341080084382, -0.09266711375250378, -0.23153089431499263, -0.21044318875581866, -0.23044205658804023, 0.19872722633360024, -0.37046835608469875, 0.38244190814289986, 0.08142606311638553, 0.33930123441152243, -0.1321952980512497, -0.13553180446769691, 0.9866284997193131, -0.042586919529381026, -0.02633916995976812, -0.04701284717756504, 0.0077184710316036305, 0.0019928309393207654, 0.0019928309393207654], [0.24617014633204887, -0.04246759390068961, 0.08374678938588408, -0.008747515518933803, 0.9126414865671867, 0.9027598488967777, 0.8413633054578662, 0.9033957853386996, 0.9090964437795584, 0.7933446528271317, 0.3106353060557464, 0.3814750532134433, 0.15721356754216934, -0.22963863036885168, 0.091310877886007, -0.14896638828876174, 0.45062824930192324, -0.037007982366277815, -0.06399738489816939, -0.06466887536092526, -0.042586919529381026, 0.9949802164109482, 0.9137932869784164, 0.8352977938266664, -0.05989365865155261, -0.019468263606254015, -0.019468263606254015], [0.24437088581891636, -0.04192606312702296, 0.092835190624306, 0.0015038145768617554, 0.8942757187852546, 0.9176438243491338, 0.8672872463054784, 0.895491385230678, 0.9148972487382017, 0.8078318170322651, 0.3227921729965907, 0.33671717470045115, 0.1366687004977723, -0.19940253450348905, 0.04866556559579598, -0.11048431661642708, 0.49045387267875834, -0.02002685046329991, -0.04910464523775145, -0.04977641561661283, -0.02633916995976812, 0.9137932869784164, 0.9938226613495447, 0.8555750275822214, -0.05496836795250097, -0.018480443983440308, -0.018480443983440308], [0.25943388687190166, -0.030950143901873034, 0.062662804734791, -0.02222262288869335, 0.8581942724623919, 0.8845690978891176, 0.9103404267507569, 0.8439621363673675, 0.8737899939857379, 0.9132175019879709, 0.47743244921193134, 0.5101337607222616, 0.19229313311896862, -0.17773788002194446, 0.045919933381994855, -0.14698875800827893, 0.6421808404033054, -0.04044144538959302, -0.06102279030561324, -0.06219058890115128, -0.04701284717756504, 0.8352977938266664, 0.8555750275822214, 0.9924303521229446, -0.04220544145238478, -0.012940234173162275, -0.012940234173162275], [-0.0071179445321559575, 0.005511986094205196, 0.002207258905687526, -0.001771656190042804, -0.058222034868195854, -0.05310702103514664, -0.039736949239522666, -0.055914689476632, -0.05439454890786875, -0.040724744126523854, -0.022359521401524578, -0.029781026790592517, -0.0008571352370337233, 0.02623454153199673, -0.015709951717429047, 0.017557221346424283, -0.02072151703100919, 0.007340706276078083, 0.0065480082867411075, 0.006717189006605695, 0.007718471031603632, -0.05989365865155262, -0.05496836795250097, -0.04220544145238478, 0.01909004552742332, 0.0038804654858605654, 0.0038804654858605654], [0.0017808323927871778, 0.0013419443795344298, -0.000717890772812228, -0.0003050827562049341, -0.017807263461917605, -0.016783797010372088, -0.012982893691535893, -0.01825608688577448, -0.01762860203845001, -0.011930659274067432, -0.0030305599162877314, -0.002441467072320677, -1.7548142707513406e-19, 0.00805849284117097, -0.004666691954113218, 0.004189711075327595, -0.005437585592367152, 0.0017011971433226036, 0.0014677888981827524, 0.0015596319787071348, 0.0019928309393207654, -0.019468263606254015, -0.018480443983440308, -0.012940234173162273, 0.003880465485860566, 0.022051053592627694, 0.0039467982292086], [0.001780832392787176, 0.0013419443795344404, -0.0007178907728122276, -0.00030508275620493404, -0.01780726346191759, -0.016783797010372078, -0.0129828936915359, -0.018256086885774472, -0.01762860203845001, -0.011930659274067432, -0.0030305599162877314, -0.002441467072320677, -1.7548142707513406e-19, 0.00805849284117097, -0.004666691954113218, 0.004189711075327595, -0.005437585592367152, 0.0017011971433226036, 0.0014677888981827524, 0.0015596319787071348, 0.0019928309393207654, -0.019468263606254015, -0.018480443983440308, -0.012940234173162273, 0.003880465485860566, 0.0039467982292086, 0.022051053592627694]], "coef_": [[-0.13441777774972197, -0.13037334504723386, -0.11179242209595008, 0.12698717634609613, 0.2262405726362191, -0.05435075933494482, 0.235576143422894, -0.057619625832257215, -0.03915235110613169, -0.2395483222135777, 0.13502135276660623, -0.2034701393269604, -0.09350420889585997, 0.0659186660056903, 0.4383002531234892, -0.10030865923387736, -0.06293412407738375, 0.10794842697370804, 0.07276980171266931, 0.01787041534394436, -0.1394045902442959, 0.0167762687902826, -0.11350737863689897, 0.01958087682131726, 0.6088260736851225, 0.3025252523842852, 0.3025252523842994]], "intercept_": [-2.5008015493225457]}}